0.02625499756570618
0.028877902866421196
0.05111579718477764
0.04121354279789381
0.010263493135566692
0.0001486848348089062
-0.004425227268519263
0.032337733618147436
-0.04549004760972259
-0.009694410494726233
-0.010181691517833468
0.02854781316863493
0.009712334295194884
0.00963751254278957
-0.03620565227611509
-0.02222526652708005
0.0043974013988407525
-0.03437765981215305
-0.009694410494726233
0.10954721708783333
-0.0004558278550631444
-0.009271806099379326
0.005259703009544351
0.06772406422798836
0.023988318270689146
-0.002438098705131649
-0.00838359452647243
0.009356152678490002
-0.03063593603128102
-0.03527465639960801
0.025392814413473994
-0.03329860631630466
0.0201142788955628
0.009712334295194884
0.020558136721302606
-0.015292242143487393
-0.02022266965883424
0.005259703009544351
-0.009256929408161712
0.009356152678490002
-0.012709121808717205
0.010263493135566692
0.02046126829038237
-0.005078394442567589
-0.022664038647522596
0.0012942758431441638
0.01922480588615541
-0.0251059783167642
0.00871105918984403
0.015019210383381694
-0.002438098705131649
0.009356152678490002
-0.00953008815881075
-0.033667878445432724
-0.01009334039785289
-0.011950722752577844
0.03580303863778987
0.012257631995139347
-0.028098558530111787
-0.021122873314784584
-0.02456755344063298
-0.02456755344063298
0.020179940744476644
0.013401746035833923
-0.030336193506544745
-0.008012460490310088
-0.021122873314784584
-0.021122873314784584
-0.026914148483545706
-0.018474628586712165
0.03193917741721149
-0.018932945056716947
0.013642861912950282
0.06499615894807147
-0.0029470516841432664
-0.0029470516841432664
-0.021122873314784584
-0.004559494897945708
0.004079030385466828
0.0023286593764285466
0.01862389546783476
-0.04787929209578215
0.009786197377598546
-0.05137420287480413
-0.006369166050418351
0.009276708449125756
0.0021240979280011062
0.1256535603454973
-0.0321371136247733
-0.0029470516841432664
0.02379082966427629
-0.08746341861483431
-0.015354442918927244
-0.047321526269754895
0.005259703009544351
-0.00016209349910507062
-0.0021754713248803084
0.0004990458755216938
-0.002758735868727057
-0.028925958500665448
0.010699566921611552
0.03275074995656786
-0.046789704157609545
0.017500898070367994
0.01862389546783476
-0.0029470516841432664
0.0004990458755216938
-0.004821027648994881
0.009356152678490002
-0.009880224240334311
0.010987045157713121
0.059911931960320707
-0.0006201991328612562
0.00418234863920313
-0.0074744490602664335
-0.019882554281595344
-0.00919948333687357
-0.04354179490146403
0.017001852194846293
-0.046847688410633206
-0.03951418106294077
0.08398524628249303
-0.009694410494726233
0.03193917741721149
-0.07595743333508095
-0.009694410494726233
0.089023806136284
0.0010214151180566978
0.025554298801901132
0.002782427347094449
0.0043974013988407525
-0.004559494897945708
-0.011323928723938644
0.006884506929383328
0.06273597986956904
0.03193917741721149
-0.05347190265377563
-0.00660825157225587
0.00014668936127689087
0.014226494068994011
-0.02908203761846892
0.017001852194846293
0.01616165716785384
-0.021020751006936077
-0.04282903229736701
-0.0029470516841432664
0.010005335032989693
-0.00953008815881075
-0.04100542759637999
-0.054158664458437096
0.020606771398946906
-0.06220919768038876
0.0004990458755216938
-0.00660825157225587
-0.0017546174448014498
0.05399716145901679
-0.007748636609155618
-0.03283261912206806
0.031173958415269775
-0.004559494897945708
0.02046126829038237
0.016951529196033772
-0.01009334039785289
-0.003912376310197852
-0.04899400330271847
-0.019882554281595344
0.017001852194846293
0.016951529196033772
0.014239348783277397
-0.014131953378700305
-0.026464202379869007
0.031507288058975916
0.0004990458755216938
0.0034601605093451415
0.006062517015169043
0.001688686449599329
-0.008359034852314083
-0.05116557446747007
0.0034601605093451415
0.00963751254278957
0.021153925654606266
0.0058390926014922195
0.01177890818903672
0.008795587689221087
-0.03975032250262036
0.009674083095788695
-0.002438098705131649
-0.019882554281595344
-0.034029144277118416
-0.0021754713248803084
0.008993221288724729
-0.017831507758811625
-0.019757090531470387
0.04703645424057334
0.010263493135566692
-0.03702522241518285
-0.01004475623627558
0.012011361499190402
-0.008012460490310088
-0.006387773335527108
0.01469517663834038
-0.005078394442567589
-0.0005403485235995485
0.01208073166111643
0.043198532833208375
0.016505958929635682
-0.004165684359075852
-0.030322356651658163
0.03250584504068679
-0.025274412862316742
-0.004559494897945708
0.020606771398946906
-0.0289849471172153
-0.03452429154805563
0.04077869675837478
-0.009446672382153314
-0.048540622521977064
0.043198532833208375
-0.0029470516841432664
0.02854781316863493
0.009331320878736506
0.017870046904137304
0.004802582407613266
0.02017994931365542
0.008839440531285226
0.06653646976295673
0.012730685077696762
-0.014060167075783087
-0.0006201991328612562
-0.0836551866891839
0.00879072263716455
-0.041134954173094575
-0.00342032333664307
0.005259703009544351
0.20337036685743679
0.005259703009544351
0.00956433559528231
-0.06245849291854877
0.07304732632917464
0.006682716148030312
0.027732091367831797
0.028258703232680628
-0.019882554281595344
0.009579051802297352
0.028258703232680628
-0.011615673654254963
-0.08515115592006452
0.017553804067020572
0.00956433559528231
-0.009694410494726233
-0.0021754713248803084
0.0034601605093451415
0.028258703232680628
-0.06674746862139251
-0.03975032250262036
0.003180684959839006
-0.002438098705131649
0.051723560754619195
-0.014253905392671944
0.06360623636897261
0.005259703009544351
0.016047276501001212
0.011015440944068793
0.033744297382852534
0.07179060707792112
0.03682594812271274
0.08309575567994719
0.05504218745844336
-0.04196165516557545
0.00963751254278957
0.020668725909365294
-0.026464202379869007
-0.002075413988808769
-0.027003000794394286
0.0012942758431441638
-0.03611101902042185
0.009712334295194884
0.03890981114141705
0.0012942758431441638
0.009405466419999156
0.043808801632726824
0.010542428201687052
-0.020377289664331638
0.00963751254278957
-0.08833570160929752
0.0001486848348089062
0.028258703232680628
0.0001486848348089062
-0.026503954918872596
0.008104329496555403
-0.027003000794394286
0.0034601605093451415
0.028623555491089383
0.028407359675183756
-0.008012460490310088
-0.03574659865975444
0.04698360678257342
0.048667502208541595
-0.027003000794394286
0.007139590209456214
-0.0006201991328612562
0.017001852194846293
-0.0013774303342117484
-0.0012486864840964601
0.017001852194846293
0.028142409684575327
0.02637683538362651
-0.004559494897945708
-0.009694410494726233
-0.002485403657413709
-0.015793971288244075
-0.027003000794394286
0.034003704389692586
0.0012942758431441638
0.017858567722692203
-0.013758978234819256
0.00963751254278957
0.040399106611561285
-0.009256929408161712
0.009783464207349301
-0.004559494897945708
0.01508108420841881
0.10130938401545682
-0.009357291953735598
-0.14922281499995155
-0.0239867407732853
-0.023024854688047235
0.01174305908653342
0.002782427347094449
0.010733749413251654
-0.08015514058122476
-0.0006201991328612562
0.012640492996548255
0.059911931960320707
-0.04852963841504946
0.008839440531285226
-0.028268590529396263
0.001517022246847084
-0.003138994182610637
-0.04061040877624603
0.039229324846451884
0.004677955767993534
-0.004915441908166025
-0.0423987891141558
0.01734798030500877
0.05236448366887413
-0.0460838220389476
0.05644351405434087
-0.015793971288244075
-0.01009334039785289
-0.010776395536831178
-0.0018857325777781502
0.007139590209456214
-0.01931605710196821
0.028258703232680628
-0.069543999431664
0.012753024896035949
0.020606771398946906
0.017001852194846293
0.006765282611051606
0.03119240645074652
-0.004559494897945708
0.0010350663736977096
0.023768715458481016
0.045858339537683174
-0.046789704157609545
-0.00925065615522664
-0.02012004397408523
0.02637683538362651
-0.026464202379869007
0.0031777298643500085
-0.0029470516841432664
-0.007999957397363498
0.12470888321235109
-0.04682813002579601
-0.007822053470212722
-0.0013113756738533122
-0.04868759403580266
-0.08105636430117688
0.0040518397113200825
0.028258703232680628
0.03490176466497706
-0.015354442918927244
0.00418234863920313
0.04995610200537449
0.009783464207349301
0.027932767805611613
0.032018439451318055
0.004079030385466828
-0.010181691517833468
-0.05913129189448201
-0.04282903229736701
-0.005036350355134763
0.011585786910499416
0.052310659486645206
0.0030029804537587542
-0.014131953378700305
-0.0424062597383454
-0.0004872394813282643
0.011015440944068793
-0.0289849471172153
0.0010758337154304414
0.001688686449599329
0.018702141993020366
-0.0589009138833043
-0.002438098705131649
-0.01819415200814355
-0.0023829289438632114
0.001815957607195285
0.0525577714449782
-0.00919948333687357
-0.027003000794394286
0.03951822669423378
0.028258703232680628
-0.03575710354931242
-0.005469705018778519
-0.01039538943417328
0.014412637462063282
0.03193917741721149
-0.006502103446527591
-0.04100542759637999
0.008217488889941733
0.014412637462063282
-0.018440381150240593
0.05504218745844336
0.00963751254278957
-0.03209540481295308
-0.005036350355134763
-0.10191309963126861
-0.008923943050071987
0.0012942758431441638
-0.02456755344063298
-0.04196165516557545
-0.057935646797958915
0.03703581529474767
0.001688686449599329
-0.027003000794394286
-0.00797821305383852
-0.022664038647522596
-0.01800431181514725
-0.003184361418706585
0.004847141656067941
0.02278958271479707
-0.07519633836766267
0.006682716148030312
-0.013370827455624313
0.0043974013988407525
-0.026487292420890932
-0.030196944248268326
-0.025682368212730265
-0.00919948333687357
-0.0021754713248803084
0.011472150656948635
-0.009694410494726233
-0.01004475623627558
0.017001852194846293
-0.01580691063691752
-0.004425227268519263
-0.0004872394813282643
0.03193917741721149
-0.021020751006936077
-0.018135627678882105
-0.009694410494726233
0.010542428201687052
-0.10012664614139391
-0.01957717395958839
0.04184707184252788
0.0012942758431441638
-0.027987876777276044
0.009783464207349301
-0.014131953378700305
0.0027304293364693016
0.011849216606907114
-0.004258427357996571
0.02637683538362651
0.04077869675837478
0.041649138483769804
-0.041072684981247276
0.0001486848348089062
-0.016171762895326333
-0.01764079522401467
-0.04100542759637999
-0.02117261568742614
-0.005550087114327776
0.017699950994087527
0.11121918214244869
0.03296059253526766
-0.06844834743906412
0.004485941152714681
0.00963751254278957
-0.008566566590763632
0.0001486848348089062
0.014226494068994011
-0.006160921641664958
-0.0013113756738533122
-0.019635134571037917
-0.05116557446747007
-0.03495844919808478
0.04807214280805886
-0.0006201991328612562
0.02854781316863493
-0.034530971118024306
0.0517701660461808
-0.035341450214766944
-0.06913967091861753
0.06360623636897261
-0.053490089871416534
0.04540862027874209
0.0030581486582658413
0.008839440531285226
0.008543065941626795
0.022844197234245595
-0.014131953378700305
-0.00494186310457594
-0.09561532335606006
0.0108586114384264
0.02642515030341987
0.015988327191305624
0.0005185227468990144
-0.01009334039785289
0.011786492215428419
-0.01009334039785289
-0.03452429154805563
0.009712334295194884
0.01469517663834038
-0.010776395536831178
-0.0029470516841432664
-0.04602212222948047
-0.01015709163325883
-0.02117261568742614
0.029636161995218988
0.0001486848348089062
0.03211728415992973
-0.0107796084009548
0.015314258551531882
-0.0008123297983316211
0.0007235520221464382
0.01467863974931171
0.00418234863920313
0.035458789383514384
0.07268791776201688
0.009783464207349301
-0.010181691517833468
-0.0006201991328612562
-0.016481976375565234
0.03965678228413769
-0.010001148599547984
-0.07737487329254199
0.0009443916749130492
-0.031198384219675232
-0.004559494897945708
-0.006387773335527108
-0.028004716745522906
-0.023331436715573892
-0.04859687741017651
-0.0289849471172153
-0.019882554281595344
0.0012942758431441638
0.03133181705712641
0.00956433559528231
-0.006234249985381088
0.0205125219410858
-0.005016603038303809
-0.02326174322910403
0.0007235520221464382
-0.015188266357281915
0.04246298224948859
-0.034021297472350095
0.04184707184252788
-0.004664730234597553
0.08584553076672205
-0.0013512463893294308
0.0030029804537587542
-0.0029470516841432664
0.0034601605093451415
0.028258703232680628
0.00962499386686992
-0.05603185569105342
0.07542328303658262
-0.0013113756738533122
0.02539412182398715
-0.021122873314784584
0.01174305908653342
-0.06930089285226763
0.03193917741721149
-0.03453427643685714
-0.0006201991328612562
0.017553804067020572
-0.0013113756738533122
0.009712334295194884
-0.01009334039785289
-0.037658408373510456
0.011585786910499416
0.006765282611051606
8.88523108485675e-05
0.02061988494644275
0.0030029804537587542
0.0025885516862883275
-0.03201896902867477
-0.00459166164226173
-0.016188692851272706
0.0012942758431441638
0.03833127737598419
0.009712334295194884
-0.03437765981215305
0.019276669890476963
8.88523108485675e-05
-0.005078394442567589
-0.00342032333664307
-0.062424245482077236
-0.010181691517833468
0.07651762330794341
0.0037660988248931497
0.00956433559528231
0.006884506929383328
0.009712334295194884
0.0030029804537587542
0.09183191562172781
-0.03003964591485429
-0.014741186415779218
0.034003704389692586
0.02854781316863493
-0.023331436715573892
0.030863470526143577
-0.01758541727108532
-0.004559494897945708
-0.018734698234208116
-0.005120452951406727
0.007857561908185888
-0.022905509155204472
-0.021122873314784584
-0.00953008815881075
-0.021020751006936077
-0.009118989795891416
0.017001852194846293
0.009376741753987589
-0.0024161903173814626
0.0132231131067347
-0.018148137750000907
0.001688686449599329
0.0052597030095443455
0.005252290493269683
-0.03823171911818264
0.016715725124741305
0.034176938869028506
-0.021500504787679738
-0.012955838091180756
0.02385321578618068
-0.0264669731383029
-0.018291064810842677
0.009356152678490002
0.008650269143713385
-0.004158803560148676
-0.04772291138605557
-0.015793971288244082
-0.028776657296461946
-0.0006201991328612566
0.0043974013988407595
0.011401020744794186
0.07477467099831228
0.011015440944068793
0.021644558843789904
0.014072628989686791
-0.010187931815190334
0.017001852194846293
0.017553804067020572
-0.010893781336056858
-0.0360309537625251
0.017026376813191472
-0.0006201991328612566
0.010805843824486176
-0.021122873314784584
-0.008012460490310087
-0.031587942576488164
0.021546332866233503
0.03889803027414932
-0.032882600490973
0.04077869675837477
0.025842512915299164
