0.6855277616898382
0.02479614528689344
0.05351077229832006
-0.5360828464538794
-0.41564034508748166
0.7196633896965844
-0.455077810149934
-0.41564034508748166
0.42782031248585983
-0.5842973014945619
1.1645075873617454
-0.5837196912658748
-1.051993427708946
-0.00234998010829372
0.012957533232254929
-0.016013824786947194
0.01145133436638845
0.0
0.3238988445558645
-0.9382071433589916
-0.16446970349499335
0.32027026287787
0.3238988445558645
1.1080408997299047
-0.20205348127384606
-0.6939893658184192
-0.19345073819958683
0.2798289440183517
0.6350184783362698
-0.7530711921999234
0.0
-0.7884884472427536
-0.7876687321202245
0.7278399195665113
0.0
0.36667291434609267
-0.5311628540877942
-0.17996853488156409
-0.2585201689056867
-0.5806687198165674
-0.8267145688410492
0.0
0.6325890684627388
0.0
-0.6178671416678276
0.37890423909834636
0.021781672951236297
0.30981895597608167
0.0
0.37030149602408713
0.0
0.42419173080786543
0.0
0.3220502807283353
0.6918724367062807
-0.1763399532035697
0.0
-0.6014466080925603
0.0
0.6325890684627388
0.7364426626407704
0.3379971797045556
0.6050284663785396
0.0
0.0
0.6495986923130294
0.5172113255848598
0.0
0.0
0.0
0.7278399195665113
0.0
-0.20046773965317424
0.0
-0.17996853488156409
0.0
0.8210919280509088
-0.13539830894707436
-0.20205348127384606
0.37890423909834636
0.0
-0.5720659767423083
-0.6211841508687306
0.25397382992001716
-0.9418357250369861
-0.612973036136099
0.9166044524035741
0.0
0.8806369695433436
-0.6675126901443086
0.0
-0.5973679368962175
0.18595330833713591
0.5845292616069295
0.0
0.5200201921403252
-0.09288553335477003
-0.001076287019607458
-0.0013563421006704361
-0.022046235072692665
-3.131281829324925e-05
0.014252551620217897
-0.00043431788449223627
0.030890393380076347
0.01829611121707987
1.0599106069396032e-06
0.018074749573978414
-0.13702995839318802
-0.12862033526094915
-0.04036218186104107
0.002824761375819906
0.003923330816400965
0.00048105602621103204
-0.051905044022282555
-0.022046235072692665
-0.0001271361386471003
0.0786482762768345
0.01566926493689848
0.05446661047022089
0.0027931816428848058
0.03932230597482589
0.023622022649204332
-0.002587996679149723
-0.0030706960137833975
0.0038007721173001253
0.044051675512345165
-0.08967702962710064
0.13690632922426926
-0.040696402650790005
0.015630669912234236
0.0036508344986048644
0.0640930259387353
-0.01977731985313918
-0.09286042908646013
0.002784038061689232
-0.020983529211371317
0.012942023656199033
0.0001752779001670367
0.00033963252389427234
0.0037511351555250053
0.004787370027689134
-0.0001642676406857384
0.012532424828113236
-0.0029281225921393363
-0.00040611724623431094
0.09201038360734985
0.022533498005111962
0.0752780763666081
-0.003505657208911423
-0.013499121065155906
0.0018157828819225393
0.01862436299026039
0.04620597522825604
0.061643627228276134
0.004462534337966134
-0.0007016959207683372
-0.00012524661006901416
-0.0009917320218157648
0.08524320623801035
-0.00035460429588418945
0.07751161150823496
0.08623881348567687
-0.003980929225533273
-0.0042864823729308705
0.0038007721173001253
0.0027970515588886325
-0.031286365180333515
-0.008365822386509198
-0.017664808498484542
0.029388747112432084
0.002647504703466493
0.0001719917358295351
-0.07670332984459116
-0.051031636390481167
-0.04562647904052233
-0.020489544362952233
-0.020093935159749166
0.03609929181637487
0.01607288647828882
-0.10371765664538675
-0.005314898662605962
-0.04453004392270244
-0.04453004392270244
-0.06610957046497068
-0.036309294159597376
0.06736005395067599
-0.016791882819802637
-0.0008897841135540197
0.06410335153484538
0.0027497963288596224
0.03280390214939226
-0.0016007133151134999
-0.01257880762359485
-0.042581295482138716
0.008822684490306773
-0.024186633189853226
0.014861629954251098
-0.007598172467775825
-0.011653526715213986
0.00484582761870246
-0.022755048172183295
0.026319394911117344
0.09882381512029326
-0.07018527382865025
0.026722838539568722
-0.013094339263982301
0.002525207568807489
0.050727349257402625
0.14874533043182023
-0.03861538298853008
0.002748452744835172
-0.012077883754909544
0.03848490259775482
-0.04386993159746024
-0.06556595686475515
0.002785697055430961
-0.004345445347201323
-0.018820832254280773
0.022210571655812417
-0.05304044706606982
-0.04708458607724615
0.07789849942350806
-0.0004383518175152916
-0.02202126486490148
0.050908336752478224
0.02895892740471843
0.0027540893821136818
0.022411407429281403
0.00606442074375029
0.01923387422292045
0.0038007721173001253
-0.047113785590802607
0.07839673157396371
0.0844818525137945
2.926490241500172e-05
0.008466095128217445
-0.0007721169103595834
-0.0006561736917476526
-0.020989102505236227
0.00010844668396989264
-0.03645820260935415
-2.526241098623252e-05
-0.04299320397288988
-7.112484140371609e-06
-2.2053013026944465e-06
0.008165803882062854
0.001233795928928884
-0.002871827492822285
-0.15054113413234751
-0.07207323961576706
0.028747402058440934
-0.07283447177445164
-0.0021464703713561166
-0.001667581667539523
-0.0003391170905681525
-0.02152861658362612
-0.0011366876877455636
0.05133625276602426
0.0048658686447520605
0.0005807813125598075
-0.001038758147849494
-0.022046235072692665
0.06994590886943133
-0.00022134120311843178
-0.0019968150725049763
-0.10643755743923079
-0.02356162105700283
-0.001211736393622818
-0.00010830704318859927
-0.005229127201317343
-0.0114103185152578
0.044348795750622824
0.009418896118557486
-0.000144084604926367
2.5544663111059723e-05
1.1431994324930667e-05
0.00889322202019462
0.0416073971311907
0.0013650612302965378
0.029598723012538127
0.022349163611780312
0.002909140101064518
-4.34570715510696e-06
-0.007390780973054512
0.009082612202520617
-0.001366482562800718
0.02196964154753383
0.016336102694013865
0.003575930569739921
0.06138772552080425
0.0011632575480220169
-0.0021424076381924705
0.04080046751226253
0.07866196052363177
-0.047959512713574785
0.000711605141624469
0.037912070742064624
-3.535542000320748e-05
2.9854401610031874e-05
0.0015976647178049478
-0.014060315521825953
-9.710863868669807e-05
2.5737032397288006e-05
-0.0039091759194846455
0.0023688964938998664
-0.039841297120051154
-0.0032506492500877135
-0.06073069464177154
-0.17359585831358354
0.02665157964531856
0.01739244482699426
-0.004136737498518128
0.0007644066610303692
0.011953867502926001
-0.06023528768488885
1.0442286300962924e-05
0.013391632962772248
0.0027436470958127177
0.005919063193024323
-4.165389566447745e-06
0.0029354290289454986
1.806137910089693e-05
0.11133733748938977
0.00015713572226073834
-0.05251356659155378
0.008375551632807092
0.1142015377277403
-0.05655879486696891
0.024184683521295918
-0.017744628479869157
-0.006496990346049215
0.05617537665061124
-0.0018735355492319962
-0.06034183722379678
0.029014319793559163
-0.007595775143719421
0.020822518906860054
0.017939363058391063
-0.009063370265955842
0.020650043718096395
-0.08412416192511933
-0.0407621111370477
0.0
0.028747402058440934
0.02206783904529969
0.036849415619572
-0.025283026910111066
-0.029220451371919844
0.024280625059468142
-0.08816655148638966
0.022275332006184798
-0.0014379904753309615
-0.06766514017311619
-0.0005219993505315863
0.0005913310771641342
0.0004807963040532536
-3.586354265227007e-05
0.0038469057934374514
0.0012245206600439216
-0.039671356750269365
-0.073837484035568
-5.503808036972624e-06
0.010446698230045405
0.00016394342117483478
-0.0014379904753309615
0.024704456349744153
-0.11113099826243703
0.006231492613716222
0.013634798697220871
-0.005197194206245141
0.0024505684866197317
0.0035770046502643896
-0.0020003281575882736
-0.0001688708799750402
-0.0016954776736693125
-0.010445002970799802
0.0001136735939176927
0.009462078723209501
-0.04981643423854121
0.001670604370322153
-0.003980929225533273
-0.0013816313606833791
-0.039567587375997276
0.005892301820723004
1.6095673827214126e-05
-0.01114840262633624
-0.015981306945014675
0.03467944629384737
0.01330808248956989
-0.012810395040973534
0.0628835799017024
0.09482928381826215
-0.060220384511829025
-0.007842579274237142
0.04826585292004311
-0.0005268113149327477
0.032105572352536894
0.02715593628720308
-0.005706561822085443
0.03005594121407023
0.025724036180361492
0.018685973766779742
0.01785034556866201
0.018229461902989016
-0.03333593362390082
0.011654804249538171
-0.025392834804404053
-0.007530374828063677
0.1142015377277403
-0.018760149873271195
-0.09527124930414058
0.03652526898882726
-0.018547429174808817
-0.10475205124146347
0.032711980973978184
0.0027540893821136818
0.030890393380076347
0.0012175946053286837
5.800598335190605e-06
-0.015842051280617442
-0.0012981224773928298
9.126196513406585e-05
-0.0005290494309087004
0.00010150940025128118
-0.05014147800712144
5.029657580069825e-05
-0.017438196865144445
-0.029096559574938653
-5.944994093876672e-06
0.05250799504677345
0.013931173494265118
0.00020205210127118703
0.1673686287764743
-0.007055283884763054
-0.00037037905431679336
0.008631719586277353
0.07630009941617162
-0.0033587003119747425
0.05877749422486417
-0.04214099667862893
2.926490241500172e-05
-0.11757413436894294
0.07203085316359871
0.01787313217565566
-0.07868955985726446
-0.0011457935529921998
0.0025780237409129114
0.1850175717374765
0.0027336454340566065
-0.021129626307889796
-0.09964999471348682
-0.0540030258706253
0.11222125328607745
0.02750070065502545
0.022805521160761965
0.018010544675450907
-0.03940263305044177
-0.009291490400053011
0.018010544675450907
0.04575130058605584
-0.07517174019117458
0.05381639511186207
0.02994908292053181
-0.006212205845444784
0.05097665526364247
-0.022046235072692665
-0.01599141219390772
-0.05933367180934949
-0.00013948047278979572
0.018010544675450907
-0.057608799848619933
-0.0462441258271986
0.060802339555597544
-0.003980929225533273
0.11120607114015475
-0.02953452270823876
-0.006336058644180729
3.4895947796529076e-05
-0.001135439926960083
0.002890465471246783
0.0414555360770735
-0.08796303515400196
-1.737366710691058e-05
0.0
-0.03349248464945361
0.10680359352802686
-0.2136548596699484
0.03562448015535297
0.032531660190586224
-6.097202294392478e-06
0.08798659825815053
-0.11684084483961486
-1.7794411443843005e-05
-0.002871446132961689
-4.0139070676154084e-07
0.0002075558893034823
0.052802559949308145
0.09172978799043713
0.06900692459049597
-0.06805107534116561
0.024722632363308964
0.02555074621665933
-0.028518878432344092
-0.004443842509582405
-0.053406532947153404
-0.013737358662992413
0.0018211792905011392
-0.044558198291219785
0.004282138034728783
0.04421149956207002
0.0017432990846679044
-0.0024167081498500014
0.05603643276728292
0.011434201625180536
-0.012542458033962967
0.024699583416049886
-0.1559411542973629
-0.002926743563219231
0.018010544675450907
-0.0040447622168205966
-0.031245598253116152
0.008573960659624971
-0.053406532947153404
-0.0014379904753309615
0.008166290631496717
0.06929413397094253
-0.0005107156411055456
-0.02765085417918569
-0.0008060827866358198
0.00018940129682599514
0.029540397410728506
-3.71442093428664e-07
0.002250867938345365
0.02515821152269179
0.03220042627231774
-0.053406532947153404
0.006193609468821227
-0.0009484832701538813
7.62934359667602e-07
0.0008850044872236546
2.926490241500172e-05
0.02170578318703623
-0.0062603686207149045
0.00806905600665108
0.028747402058440934
0.05845140593994845
0.022595385752644536
-0.006447023599365268
0.03515442638227338
0.004937608294301864
0.0015382352494608018
-0.053406532947153404
0.05749480411688187
0.0016263815850965527
0.04257453073223771
-0.01728823398084377
0.02295135513232196
0.060067939597557136
-0.019727646878529237
0.039356864247891914
-0.007395506869519092
0.031702406336337814
0.2483829518427958
-0.0008434632525234696
-0.185529046108075
-0.060345403156290174
-0.031053093424486353
0.033423494088556945
0.01906991637576655
-0.048291769904865146
-0.004079372455943226
0.016272111334976698
-0.08011981411570748
0.017915957934956366
0.0005471533685031028
-0.0025106579882959216
0.0011919464409456601
-0.009102260380001982
-0.0011869982132379031
0.034421650038607914
0.08566885072703237
-0.07882609098730699
0.012372064408738894
-0.001911297751513834
-0.0006358158457209012
0.013004531026608226
0.006269079962101764
-0.004856950624765729
0.0
-0.08105346591133593
0.050098518426284815
0.014124358251217689
0.015682479678126006
0.009957554289059117
0.010483619409912933
-0.028517497525765587
0.030528396191555337
0.04555016891156175
-0.09043404669794955
0.05413260691573727
0.0015382352494608018
-0.09482472667623953
-0.00024096371213769703
0.009004224450659893
-0.009067306577596941
0.07190645615149563
-5.0839160945436536e-06
-0.006293100884478333
0.009730182355919237
-0.09198083361298455
0.006014153090505769
-0.04781273829026845
-0.0003795824918343569
0.018010544675450907
-0.09239917094988834
0.010141359919097424
0.1142015377277403
0.028747402058440934
0.006882341319190822
0.0016048679778170706
-0.007395506869519092
-0.06213862368323715
-0.06408389173977283
0.0440303406907504
-0.022247042787402506
-0.019562508841698068
-0.013098046113238756
0.022595385752644536
-0.028518878432344092
0.011639545774216683
0.002749355452068658
-0.005792957614421103
0.07036432207667775
0.021471346089843104
-0.0350958442799694
0.12045791362573066
-0.00014663887012711775
0.05097665526364247
-0.014389776752715105
-0.08631480970373075
0.027114778681258882
0.018010544675450907
0.02815030401866491
-0.04386993159746024
0.010196250486920333
-0.007793158650868184
0.04248484161548652
0.0005537199090742104
0.0016803631868483157
0.012643534703124387
0.015092598058119105
0.00022057597257742794
0.006577408244923477
-0.025706105372233192
0.0007065236047326418
0.0006693612582110114
-0.001888401238967684
0.02463770401768145
0.0872549619991061
0.055822539809568486
0.0037189456755320396
0.0009586146618912872
-0.07626420167909302
-0.04724392904480529
-0.06517124444633104
-0.07356869294475955
-0.03323610115309731
0.023095430760211696
0.0014251157841505813
-0.01936363476211607
-0.0013194619564170789
-0.053501498444674084
-0.025283026910111066
-0.05985074123973928
-0.005336749101234747
0.0006261340389629081
-0.01954377277329335
-0.022256891213048476
-0.0004774285527322832
0.06683200291735257
-0.1999208868648056
0.0005274173903089219
0.02540781788689881
0.00042826222783898975
-0.01988896962050774
0.011820244337764529
0.09709727609675732
0.011166042211260156
-0.053406532947153404
0.10093032944168494
0.0013390604303731898
0.01748312728514198
-0.04065638547865217
-0.008362775430165682
0.0006184084941267194
-5.646288260132133e-05
0.0005270978393567264
0.002299211898118762
-0.0005326868524112194
-0.0016873369897155994
-0.020733450382604237
0.008132533093532672
0.08097332479142841
0.007865569616382346
-0.08321216106103009
-0.01053715956689004
0.005863372586183029
-0.053346305588935314
0.07744585477677368
0.0054108015652452645
-0.018075493845551734
0.024705258696202072
0.0016260382387488857
0.002221357475585729
-0.014339225514392945
0.011655615869977851
-0.03274435888230508
-0.14092662591203836
-0.0024035019121452466
0.0018157828819225393
-0.022176881352667835
-0.08134256630344541
-0.03768611868485735
0.10418558334425958
0.029388747112432084
-0.005948695460779753
-0.053406532947153404
-0.020596738834062826
-0.003387725130484702
0.09351262022311332
-0.04118659120154294
0.007029689945259147
0.025467727606817966
-0.05804588803409748
0.0859248128385473
-0.01728410584788068
0.002829145566954281
0.0032221512307303024
-0.04169036092185929
0.0005011083331512814
-0.03843698830443298
-0.0015162917798808152
0.00580522450531981
0.0
-0.08798670589257324
-0.0002003351342357841
-0.05027796458859468
0.003205302982453425
-0.008014543163847353
-0.029351016075091517
0.00017525483945326305
-0.05192555079222164
0.011189480665115801
-0.015985611595572588
0.0006982562724052971
0.0028258920066685325
-0.0001740767795682136
-0.07606419505521447
0.012490648927800918
-0.022046235072692665
-0.009685664351530971
0.004196987819827127
0.028747402058440934
0.0001489987787467281
-0.03483329146160199
0.006442483403950299
-0.0014475228875992954
0.0060065924428097765
-0.01707464868973424
0.07073069190975641
-0.06023528768488885
0.023759036973784724
-0.022046235072692665
0.011200985207914418
0.029388747112432084
-0.1616279131793472
-0.020108080982802163
0.04222163171134461
-3.718024948708132e-05
0.001703964352662866
-0.020227845639480144
0.0357236346522338
-0.025283026910111066
-0.1341048866618785
0.1302686762750494
0.08303271255538228
-0.03413060406273489
0.0025883058248597816
0.021932520543924333
0.03645680275977247
0.10997271902012107
-0.030193185109077418
-0.004559000701939976
-0.02674143371904164
-0.11805024098716527
0.03801136609165941
0.010074175229519715
0.048069726358199505
0.02902978315988129
0.0036401558454024793
-0.0030161626741491143
-0.0016751353490825074
-0.002350169058343316
0.031975998344463005
0.0798838656839831
-0.07939355168049698
-0.025188424613043783
0.024705258696202072
-0.01132068463072092
0.0035782666116909645
0.023779941261564616
0.03217818621192684
-0.00014663887012711775
7.784707259004169e-05
-0.00827736186140474
-0.03703389812693239
-0.039439394363325685
0.07133192824229172
-0.0013998346295057164
0.01533797018883674
-0.015973472386401778
-0.0012311728021864
0.016988388939912995
2.926490241500172e-05
0.03533308521429338
0.00014799665064314647
-0.10884209711434131
0.01932193795269973
-0.06960217241893817
9.504476893433413e-05
-0.09878670515343875
0.04642737497196087
0.0
0.003028116570952239
-0.022533897141504982
-0.0002442048969612955
0.05837394454017888
-0.07363877684257555
0.08919837526775677
-0.08845385357063504
0.011642067134969899
0.030668910457739465
0.041013044037082745
-0.025283026910111066
0.017472280722145586
-0.10322668253850911
-0.018978376563871746
0.093441073078083
0.047638017158277285
0.010918421542766833
-0.009068343099501337
0.008889106629411229
-0.009045599469506558
-0.09534005679588382
0.003514604509931999
0.027711653307913833
0.0012478470027213725
-0.00027281972081321125
1.8861729157455106e-05
6.947562812824512e-06
0.0037214794316475738
0.0027540893821136818
-0.07739550821040239
-0.005359627916045823
0.01046169782594623
0.022274685349287494
-0.004031360556422254
0.000533007795125211
-0.03609714220177873
-0.0006754479346457986
0.17858856311365773
0.016295768961358453
-0.013941703696860487
0.08645518335285078
0.0632444583765085
0.010827011564762058
0.06518679669547228
0.04248484161548652
0.0009586146618912872
2.231733960217585e-05
-0.009468624747347406
0.038451030611370146
-0.024659130888712476
-0.08922817688577245
-0.012152151607875673
-0.07041301648514058
-0.007395506869519092
0.03233734439214636
-0.03239109841671821
-0.014418293640679609
-0.026809083695459365
-0.016387098908328866
-0.033767182887485696
0.001737935809332495
0.019703129507722676
-0.02103836434275572
-0.022773535175919894
0.05801203218828594
0.0163655153413474
-0.04207139737053372
-0.03899902047936727
-0.016291872755203773
0.07400786461162659
0.1462572040213607
-0.05224531465410772
-5.821730990803981e-06
0.043467908773143334
-0.0039304494068942136
0.12107529546609858
-0.006831890408417467
0.001859136219580017
0.010335489998395593
-0.010676637586001046
7.604990766678363e-05
0.0027505757165511347
-0.0015434140964640454
-0.0014379904753309615
0.018010544675450907
0.0011027373111749785
-0.050575511981073296
0.06502471620197095
-0.00014663887012711775
0.062232435142371575
-0.04453004392270244
0.03188585579820491
0.00019896688520512585
-0.0014502728875094941
-0.00012686026629250353
-0.047212253348779876
0.029388747112432084
0.06289974083363312
0.017226470033083727
2.926490241500172e-05
0.025863986192716907
-0.00014663887012711775
0.0060152795813170025
-0.008839097424415488
-0.027407540121256683
0.024772176479723657
0.0064053027130544565
-0.013086956710821265
0.02730772321305026
0.0076512193839085915
0.0034797273988665116
-0.06711283579029544
-0.01600344130088775
-0.021556822962666037
0.0018149520714019138
0.07337523499556287
0.0036508344986048644
-5.63863655837903e-05
0.029538888488606637
-4.726008835525282e-06
-0.0516862724864235
0.10038625665103555
-8.499199334029375e-05
-0.013048631561564229
-0.0057369145717908795
-0.002211465149757205
-1.2587686081285088e-05
-0.0011466683840819156
-0.07248201808966635
0.0009586146618912872
0.04965846753651389
-0.007557986084250975
0.10126977774338222
0.014726975445812071
0.005848572230533723
0.00011541839785737947
-0.0014705791270659676
0.11730854543173178
-0.04435457961564016
-0.05224042664379309
-0.005080550106957294
0.05749480411688187
0.030890393380076347
-0.014092148097522093
0.012193870344843462
0.0012987665178047889
3.937960444162886e-05
-0.09694727227664376
-0.0002552101501811303
0.02459260184583104
0.0018816264589872856
0.0012167624502386503
0.00030422470034485304
-0.0039644724780750614
0.0
0.0013921653116127698
-0.06713311962632726
0.015818828162178306
0.004460484488032947
-0.009638983033280894
1.796682859079072e-05
7.29447319276454e-05
0.014013176989381456
7.37690888931416e-05
-0.0002487837956296785
-0.042862462255162916
0.002792509994256027
-0.05989617059432074
0.00012730457181363267
6.930425265500779e-06
0.025314645307606923
-0.015061731609981808
0.028747402058440934
0.009008479821755877
0.0008939144017405176
-0.055306775334077
0.01229608234902748
-0.000719499417890826
0.002762109013593306
-0.0026168001301772555
-0.040078725387495476
0.02532246791549996
0.03727239972540827
-0.034019086426522786
-0.027495326237885982
0.057508249232404794
-0.026115443491024445
-0.015408926717576413
0.0038007721173001253
0.022963919793178817
-0.008976894511342386
-0.09260591684891466
-0.11491324235366047
-0.026052200897261867
2.9264902415002085e-05
0.001678545161854449
0.0052693161653600004
0.12192601658362218
-0.09009873701555003
-0.04259084219519908
0.07731410878344519
0.0023358405055399567
0.028747402058440938
0.05378654071025205
0.05712405477174017
-0.08679838615617723
-0.012250754991686463
3.5278700177139273e-06
-0.011495890274641584
-0.04453004392270245
-0.002879612135005423
-0.11337500710419995
0.01622976261345104
0.04260216945408182
-0.04864201382407082
0.03698406807461038
0.018909105234644227
