0.03602019446206275
0.02217684449216099
0.02217684449216099
-0.01947633810041932
0.03592214067702123
0.02217684449216099
0.03602019446206275
0.026674873585995174
-0.01947633810041932
-0.048419246055331634
-0.009247267091026074
0.025791123452669523
0.02217684449216099
0.03602019446206275
-0.022857826502287463
-0.010229071009393253
-0.08159073261220864
-0.029924711873279455
0.0
-0.025942661751198012
-0.029924711873279455
0.03592214067702123
0.03602019446206275
0.07126411917753235
-0.016860397698545682
-0.04940104997369876
-0.022857826502287463
0.0927956030679403
-0.04233416460270677
-0.029924711873279455
0.0
-0.011117088890858363
0.02217684449216099
0.05751882299267206
-0.022857826502287463
-0.04993967491343821
-0.025942661751198012
0.03592214067702123
-0.03917197896430551
0.06919712822743311
0.034598564113716555
0.035341978500511066
-0.035189928842224084
-0.024969837456719105
-0.022857826502287463
-0.010229071009393253
-0.022857826502287463
-0.045715653004574926
-0.0509124992079171
-0.024969837456719105
-0.025650819466845574
0.035341978500511066
-0.022857826502287463
-0.022857826502287463
0.034598564113716555
-0.010229071009393253
-0.022857826502287463
-0.025942661751198012
0.035341978500511066
0.02217684449216099
0.0
0.0
0.035341978500511066
0.06856917999801572
-0.025942661751198012
-0.025942661751198012
0.03602019446206275
0.03592214067702123
-0.029924711873279455
0.058197038954223804
-0.03917197896430551
0.12946115813175618
-0.010229071009393253
0.02217684449216099
0.035341978500511066
-0.022857826502287463
-0.010229071009393253
-0.024969837456719105
-0.029924711873279455
-0.010229071009393253
0.02217684449216099
0.058197038954223804
0.03592214067702123
0.03592214067702123
0.03592214067702123
0.03602019446206275
-0.029924711873279455
0.034598564113716555
-0.03519890846611234
0.035341978500511066
0.03592214067702123
0.03592214067702123
-0.009247267091026074
0.034598564113716555
0.05751882299267206
-0.1503215948606565
-0.04015378288267268
0.05751882299267206
-0.025942661751198012
0.035341978500511066
0.0
-0.025942661751198012
-0.03449812672386852
0.03602019446206275
-0.022857826502287463
0.03602019446206275
-0.025942661751198012
0.02217684449216099
0.0705207047907378
0.034598564113716555
-0.025942661751198012
0.02217684449216099
0.07061875857577922
-0.010229071009393253
0.02217684449216099
-0.03519890846611234
-0.0037658172590370343
0.03592214067702123
0.034598564113716555
0.011050357005343663
-0.03519890846611234
0.011050357005343663
-0.025942661751198012
-0.010229071009393253
0.034598564113716555
0.02217684449216099
-0.009247267091026074
-0.022857826502287463
-0.04015378288267268
0.03592214067702123
-0.025942661751198012
-0.024969837456719105
-0.06211439451178927
0.05751882299267206
-0.010229071009393253
-0.010229071009393253
-0.009247267091026074
0.0
0.035341978500511066
-0.0798643867867176
0.0008212859959504146
0.034598564113716555
-0.0651919911049943
0.035341978500511066
0.034598564113716555
0.02217684449216099
0.03602019446206275
-0.010229071009393253
-0.022857826502287463
-0.009247267091026074
-0.05984942374655891
-0.025942661751198012
-0.024969837456719105
-0.024969837456719105
0.034598564113716555
-0.06512362033939183
-0.04015378288267268
0.03592214067702123
-0.029924711873279455
0.03592214067702123
-0.029924711873279455
0.034598564113716555
-0.010229071009393253
0.02217684449216099
-0.025942661751198012
0.03592214067702123
0.034598564113716555
0.03602019446206275
0.03602019446206275
-0.029924711873279455
-0.022857826502287463
-0.04015378288267268
-0.052650888260983034
-0.025942661751198012
-0.022857826502287463
0.035341978500511066
0.03592214067702123
-0.010229071009393253
-0.025942661751198012
0.035341978500511066
0.02217684449216099
0.02217684449216099
-0.024969837456719105
-0.06827682635390477
-0.009247267091026074
-0.009247267091026074
0.034598564113716555
-0.020458142018786506
0.03592214067702123
0.03592214067702123
0.034598564113716555
-0.022857826502287463
0.035341978500511066
-0.025942661751198012
0.034598564113716555
-0.010229071009393253
-0.024969837456719105
-0.029924711873279455
-0.029924711873279455
0.041919569480763065
-0.024969837456719105
0.034598564113716555
0.03927241635415364
-0.0037658172590370343
-0.04993967491343821
0.035341978500511066
0.03592214067702123
-0.025942661751198012
0.03602019446206275
